digraph Tree {
node [shape=box] ;
0 [label="X[1] <= 0.15\nmse = 0.108\nsamples = 9\nvalue = 2.186"] ;
1 [label="X[0] <= 0.15\nmse = 0.091\nsamples = 4\nvalue = 2.46"] ;
0 -> 1 [labeldistance=2.5, labelangle=45, headlabel="True"] ;
2 [label="mse = 0.135\nsamples = 2\nvalue = 2.61"] ;
1 -> 2 ;
3 [label="mse = 0.0\nsamples = 2\nvalue = 2.309"] ;
1 -> 3 ;
4 [label="X[1] <= 0.25\nmse = 0.014\nsamples = 5\nvalue = 1.966"] ;
0 -> 4 [labeldistance=2.5, labelangle=-45, headlabel="False"] ;
5 [label="mse = 0.006\nsamples = 3\nvalue = 2.042"] ;
4 -> 5 ;
6 [label="mse = 0.005\nsamples = 2\nvalue = 1.854"] ;
4 -> 6 ;
}